{"layers.0.weight": [[-183, -345, 11, 229, -338, 228, -247, 139, 185, -12, 230, -241, 93, 370, 123, 38, 211, 362, 307, 416], [-409, -157, -1, 253, 83, -198, 294, -538, 388, 22, 19, -354, -234, 328, -112, -77, -406, 526, 250, 653], [533, -231, -36, -202, -302, -5, -68, -269, -37, -36, -247, -280, -487, 44, -354, -630, -262, 368, 136, -281], [133, 482, 61, 134, 90, 27, -40, -113, -35, 305, 56, -66, 710, -43, 22, 189, 4, -121, 116, -171], [-516, -264, -592, 397, 315, -175, -410, -115, -18, -469, -257, 115, -14, -107, 66, 219, -92, 28, -195, -75], [-234, -156, 192, 107, 318, -28, 69, 180, 955, -288, -202, -346, 155, -309, -89, -187, 298, -56, -206, 404], [-400, 51, -178, 72, 163, -387, 281, -155, 290, 144, 54, 180, -388, -168, 311, 206, -186, -133, 201, -110], [316, 329, -110, -577, 553, 179, -78, -289, -336, 12, 156, -211, -427, 519, -111, -196, -391, -341, 80, -277], [-584, 13, -107, 73, -120, -545, -50, -67, 47, 386, -271, -399, -277, 34, 277, 421, 192, 244, -138, -219], [270, -72, 594, -162, 256, -184, 125, 154, -256, 185, -296, 16, -5, -219, -95, -54, -321, 261, 322, -96], [116, 494, -157, -219, 359, 16, 125, 27, 247, 434, -176, 11, 118, -136, -266, -44, 155, -93, -72, 15], [74, 164, 254, -339, 10, -379, -148, -73, 69, -235, 64, -124, -246, -56, -220, 246, -1, 232, -549, -98], [-336, -308, 94, -109, 252, 591, 139, 177, -35, 76, -140, 277, -812, -206, 48, -14, 136, 78, 139, 330], [398, -685, -216, -371, 106, -240, 210, -467, -15, -336, 38, -73, -561, -146, 204, 182, 307, 5, 76, 243], [243, -340, 340, 58, 176, 373, -20, -223, -158, -212, -272, 87, 151, 224, 4, -220, -222, 62, -133, 222], [141, -686, -87, -198, -203, -195, -79, 55, -20, 223, -28, -12, -791, 176, -297, 123, 137, -82, 53, -163], [201, -100, 175, -186, 436, 252, -118, -179, 119, -351, -97, -230, 242, -400, -327, -532, -294, 41, 121, -529], [455, -109, 72, -432, 254, 381, 18, 234, -130, -652, 63, 24, 113, 419, -14, 46, 35, 450, 136, -127], [-133, -147, 160, 118, -262, 247, 173, -480, 222, 90, 652, 433, 258, 471, -143, -197, 369, -209, 243, 216], [-187, -509, 194, 370, 173, -406, 34, -198, -78, -440, 237, 171, 233, -302, 122, -257, -48, 202, -124, -329], [-404, -204, 108, 620, 144, 28, 247, -14, 368, 94, 131, -116, 327, -190, -148, -127, 27, 146, -225, -85], [142, 88, -26, -369, -62, -129, 179, 56, -334, -423, -286, -322, -251, -180, 87, -641, 93, -430, -79, 72], [-185, -632, 184, 206, 509, -301, -172, -58, 49, -339, 451, 250, -266, -392, -136, 447, 319, -235, 257, 269], [424, -30, -195, -447, -164, -353, -384, -142, 378, -302, -112, 106, -166, 24, 80, 470, -165, -172, 403, -147], [103, 367, 430, -217, 221, -191, 163, -332, 129, -354, -46, 37, -381, -160, 470, -285, 19, -53, -146, -422], [-59, -293, 51, -329, -11, -458, 172, 235, -9, -395, 71, -322, -732, 243, -26, -13, 343, 266, 99, 51], [-330, -139, 154, 334, -1, -106, 292, 156, -544, -15, -314, -220, -466, 239, 246, 92, -569, -291, 129, -197], [108, 113, -233, 199, -120, 46, 118, 140, 51, -375, -165, -173, 460, -35, 249, -3, -8, 96, 101, -144], [-37, -178, -142, -187, 213, 138, 55, -36, 105, 255, -186, 30, -1397, -124, -285, 23, 95, -111, -119, 108], [-146, -219, -10, 99, 976, -115, 278, -51, -211, 280, -75, -201, -186, 424, -519, -62, -97, 109, 559, -511], [-218, 18, 299, -376, -293, 13, -226, -403, -412, -272, 492, 262, -335, 97, 8, -173, 302, 54, -498, -62], [-45, -215, -509, 131, 190, 8, 376, -146, -11, 170, 331, -386, -396, 36, -163, -441, -147, 323, 249, 22], [381, 487, -37, -11, 307, -217, -414, -202, -47, 215, -36, 93, 425, -381, 105, -13, -460, 32, -14, 152], [199, 89, -111, 257, -73, -167, -93, -50, -16, -103, 84, 27, 675, -120, -212, 83, 127, -22, 61, 66], [-653, -258, -294, 280, 331, 325, 598, -449, -247, -199, -83, -340, 376, -82, 233, -273, 226, -125, -371, 220], [-273, -197, 14, 100, 44, -283, 736, -306, -370, -49, -301, 416, -286, -124, 117, 180, 330, -436, 61, 279], [325, -516, 291, -127, -523, 109, 362, -157, 254, 175, -409, -519, -193, 25, -334, 448, -177, 196, 174, -121], [-88, -236, -213, -85, 312, 150, -254, 358, -521, -232, 757, -602, -268, -628, 237, 70, -751, 43, 122, 390], [-189, -218, 607, 376, -431, -241, 21, 139, 128, -283, -235, -48, 179, 586, -67, 182, -358, -269, -255, 77], [551, 206, -280, -27, 336, -140, -311, -472, 456, -319, -252, 156, 471, -38, -416, -130, -80, 574, -2, -419], [-167, -109, 685, 210, -125, 504, 69, -425, 4, 53, -295, -422, -184, 403, 78, -128, -547, 631, -238, 321], [261, -310, -128, -75, -23, 280, -73, -30, 291, -589, -151, -269, 413, -400, -2, -178, -42, -263, 67, 260], [-30, -383, 16, -230, 137, 646, 16, -7, 12, -325, -172, -102, 485, 77, -199, 18, 117, -136, 90, 80], [356, -140, 199, -114, -230, 865, -269, 397, -103, 33, -279, -62, -228, 187, -157, 189, 598, 264, -87, -219], [-456, -623, 253, 30, 78, -182, 66, -160, 84, -114, -276, 105, -88, -10, -218, -344, -337, 395, -330, 277], [383, -53, 124, 127, 61, -384, 125, 81, 94, 80, 11, 38, -608, 31, -421, 84, 39, -142, -72, -111], [-183, -340, -394, -22, -610, 549, 308, -8, -231, -73, 300, -19, 223, -202, -301, 127, 406, 401, -219, -38], [-216, -70, -428, -82, 160, 104, -17, -310, 221, -28, -356, -25, -298, 224, 79, -270, -207, 552, -41, -306], [448, 245, -77, -441, -213, -761, -101, 88, 166, -531, 82, -190, -875, -2, -388, 153, 246, 40, 92, 18], [121, 186, -357, -129, -311, -180, -220, 5, 680, -117, 43, -65, -386, 501, -157, -174, 264, 501, 169, -46], [-213, -331, -240, 222, 142, -313, -160, 283, -123, -43, -213, 107, 50, -179, -195, 259, 183, -736, -203, -82], [397, 28, 114, -243, 269, 243, 161, -263, -139, -330, 146, -64, -30, 394, -166, 37, 155, -225, -304, 770], [252, -281, -83, -101, -28, 529, 18, -116, 204, -277, 21, 156, 348, -257, -636, -67, -300, -246, 67, 168], [86, -182, -320, -337, 213, 311, -247, -423, 53, 137, -423, -295, -259, -249, -293, 115, 403, -328, 129, 2], [18, -13, 71, 305, -279, -126, 288, -413, -41, 324, -223, 134, 354, 6, -133, -72, 139, 96, -319, 80], [-50, -296, -86, -222, 164, 646, 70, -104, -13, -244, 61, 91, 390, -39, -197, 40, -157, -48, 18, 58], [282, -462, 84, 168, 445, 389, 66, -161, 76, -595, 242, 86, 308, 335, -328, 348, -76, -160, -127, 30], [394, -521, -82, 152, -35, 560, -56, 28, -86, -514, -108, 57, 470, 35, -315, 24, 128, 9, -142, -19], [412, -157, 73, -335, -54, 288, -30, -275, 209, -382, 29, -41, -384, -599, -463, 314, 5, -483, 121, 138], [612, 29, 442, -665, -400, 199, 139, -28, 513, -279, 30, 185, -288, -591, -331, -211, -171, 37, -42, -91], [192, 245, -350, -276, -245, -172, 241, 14, -343, -530, 161, 79, 165, -416, -13, 72, -170, 192, -91, 589], [320, 73, -422, 232, -193, -117, 279, 147, 65, 368, -155, -107, -499, -130, -417, -154, -162, 617, -16, -215], [-155, -253, 662, 162, -189, -237, -337, -334, 382, 170, -575, -174, -462, 1, 112, -352, 480, -85, 212, -72], [461, -120, -178, -399, 254, -120, -31, -163, -44, 88, 524, -338, -648, -282, -167, -76, -210, 155, -257, 180]], "layers.0.bias": [-261, 326, 48, -219, -31, -281, 268, -276, 94, -126, -104, 107, -750, -39, -290, -63, 205, -349, -356, -64, -107, -78, 42, -223, -144, 346, -106, -494, 324, 74, -421, -130, 19, -582, -255, 258, -142, -104, -45, -412, -331, -361, -11, -34, 84, 335, 54, -295, -51, -384, 273, 93, -73, -328, -90, -29, 315, 183, -71, -96, -382, 52, -66, 112], "layers.2.weight": [[448, -278, -323, -141, 206, 47, -21, 253, -512, -225, -71, -164, 573, 27, 230, -381, 495, -17, -125, -113, -205, -143, -54, -374, -355, -315, 531, -167, -138, -189, 475, 141, -148, 334, 239, -243, 442, 88, -366, 403, 479, 354, 139, 166, -596, -610, 344, 394, -266, -262, 24, 227, 402, 480, -546, 158, 279, 239, 362, 481, -90, -463, 7, -290], [-524, -18, 10, 7, -236, 322, -21, 317, -424, 67, 82, -40, -430, 15, 36, -25, -286, -533, -199, -112, -201, 228, -238, -150, 177, 104, 49, 300, -77, 249, -45, 103, 305, 29, 259, -38, -60, 161, 54, 20, 106, -564, -208, 226, -163, 94, -323, -281, -222, 304, 107, 345, -220, 93, 154, -284, 105, -157, -98, -237, 354, 131, -203, -235], [105, 218, -446, -440, 267, -179, 183, -124, 323, -99, -416, -257, 225, -408, 62, -203, 25, -120, -59, 119, 45, 127, 293, -553, 30, -47, 167, -440, -365, 56, 194, 199, -232, -483, -135, 36, 99, 337, 104, -586, 249, 117, 246, 59, 121, -349, 3, 372, -919, -153, 115, -174, 255, -610, -159, 115, 106, -23, 126, 0, -461, 1, 353, -240], [566, -81, -209, 318, -267, -475, 24, -634, 317, -625, 177, -49, 449, 232, 198, 280, 185, 295, -157, -510, -365, -500, -334, -150, -501, -51, 254, -988, -436, -613, -543, 77, 468, -140, -249, 49, -910, -291, -797, 276, -817, 54, -260, -337, 14, -648, -44, 25, -486, 207, -325, -110, 268, 162, 206, -167, -87, 376, 277, 228, -127, -1058, -176, -596], [361, 223, 51, 150, 254, 204, -297, 233, -217, 76, 81, -118, 9, 210, 219, 176, -143, 21, 7, 256, -55, 292, 86, 99, -162, 178, 114, 362, -198, 305, 107, -205, 99, -196, 122, -163, 72, 188, 519, -19, 42, -228, -251, 51, -23, 76, -264, -97, -164, 290, -7, 369, -154, 68, -154, -194, 140, -276, -132, -184, 408, -63, 153, -133], [-243, 135, -380, -272, 52, -63, -17, -431, 4, -14, -386, -27, 262, 311, -161, -560, 53, -242, -300, 33, 86, -165, 279, -368, 235, -203, 261, -357, -673, 220, 269, 333, -333, -320, 41, 272, 85, 134, 213, -504, 39, 135, 55, -73, 131, -117, 30, 262, -518, 86, 245, -334, 115, -121, -41, 65, 363, 173, 128, -85, 221, 35, 422, -209], [366, -107, -517, -270, 14, -142, 59, -88, 13, -36, 3, -370, 445, -255, -99, -229, 452, 47, 122, -45, -19, 52, 131, -467, 61, 133, 175, -346, -830, 329, 557, 153, -184, -171, 76, 106, 147, 120, 12, 15, 276, -197, 52, 167, -19, -166, 418, 123, -851, 431, 84, -361, 211, -221, 31, -125, 238, 451, -42, -227, 46, 33, 74, -264], [-39, 244, -817, -124, 85, 177, 78, -1048, 155, -42, -120, -197, 537, -110, 9, -705, 112, -530, -486, 106, -113, -41, 342, -472, 75, -264, 166, -434, -644, 194, 356, -87, -374, -443, 9, 295, 72, 61, 159, -271, -7, 245, 180, -3, 288, -125, 52, 185, -453, -131, 140, -185, 445, -277, 102, 263, 228, 441, 346, -398, -175, -173, 436, -404], [275, 126, 78, 88, -129, 292, -145, -131, -205, 34, -69, -89, -191, 100, 87, 67, -204, -257, -55, 273, 62, 251, -22, -20, 67, 157, -66, 403, -151, 344, -31, -88, 203, 52, -77, 10, 355, 63, 362, 212, -9, -351, -336, 199, 43, 80, -70, -67, -441, 297, -31, 349, -69, 9, 23, -237, 131, -18, -118, -239, 421, -28, -125, -326], [-163, 132, 91, -90, -308, 279, -139, 316, -182, 45, 272, -45, 228, -218, -304, -57, -172, -594, -574, 234, -218, -145, 18, -100, -52, 91, -92, 330, -64, 330, -190, 312, 54, -188, -352, 183, 135, 109, 100, 320, 86, -665, -345, 41, -265, 181, -190, 320, -182, 469, 8, -127, 56, -35, -43, -88, 438, -49, -200, -300, 102, 52, -69, -246], [146, -48, -432, -167, 304, -661, 74, -516, -91, -137, -131, -285, 246, -98, 199, -544, -275, 90, -419, -354, 200, -5, -691, 185, -242, 57, 322, 31, -70, 185, -8, -203, -336, -766, 135, 296, -130, -381, -78, -17, 395, -195, 57, 223, 11, 153, -27, -20, 178, 292, 19, -200, 10, -74, 69, 19, -108, -348, 6, 355, 185, -375, 191, -718], [-1499, -327, -372, -2080, -1603, -932, 42, -757, -95, -406, -279, 214, -1926, 291, -214, -274, 147, 1, -1983, -939, -786, -730, 150, 199, 202, 176, -406, -1175, -61, -632, 482, -534, -1189, 17, -160, 39, -185, -1512, -937, -1293, -158, -1688, -613, -2110, -467, -2, -1295, -175, 335, -1300, 228, -13, -583, 77, -802, -1189, -389, -332, 153, 94, -1676, 168, -104, 248], [-47, 208, -256, -325, 32, -19, 65, -182, 73, -69, -247, -406, 427, -157, -151, -473, 276, -128, -366, 6, -33, -90, 286, -560, 214, -247, 297, -391, -908, 340, 314, 101, -254, -352, 0, 236, 89, 143, 77, -255, 148, 136, 0, -144, 187, -209, 221, 253, -739, -120, 142, -204, 376, -391, -8, -28, 293, 331, 165, -562, -26, -215, 334, -376], [-93, 136, -427, -519, 176, 137, 216, -759, 212, 22, -249, -277, 24, -313, 7, -417, 166, -418, -69, 25, 21, -163, 257, -137, 166, -166, 170, -362, -763, 283, 226, 19, -405, -556, 35, 136, 25, 66, 111, -434, -11, 2, 82, 119, 312, -311, -20, 255, -670, -247, 71, -461, 221, -377, -20, 251, 162, 423, -322, -847, -145, 27, 358, -397], [126, -62, -533, -99, 151, 328, 173, 33, -162, 76, 44, 298, 645, -169, -365, 57, -27, -241, -354, -119, -129, 55, 221, 164, -188, 393, 152, -237, -356, 125, 833, 174, -43, 34, -42, -194, 268, 144, 226, 265, 180, 82, -17, 314, -266, 330, 109, -114, 658, 342, 51, -176, -192, 101, 156, -321, 214, 61, -76, 297, -134, 23, 13, -193], [148, 248, 28, -277, -30, 177, 422, -1127, 8, 60, 132, -227, -134, -342, 46, -149, 213, -184, 195, 210, 121, -50, 134, -570, 52, -177, 247, -277, -496, -51, 105, 51, 121, -474, 52, 168, -417, 296, -94, -592, 69, 101, 177, -214, 48, -213, -2, -127, -429, 134, -139, -389, 162, -528, -120, 4, 43, 227, -21, -497, -631, 125, 155, -21], [162, -550, -312, -327, 106, 87, -314, 226, -717, -433, -234, -439, 655, 5, 40, 120, 277, -55, 400, -274, -699, -80, -97, -722, -620, -629, -276, -69, 24, -113, 206, 440, -431, 211, 361, -452, -281, 191, -53, 313, -80, 440, 204, -128, -477, -108, 156, 92, 92, -146, 81, 153, 198, 458, -515, 227, 319, 268, 226, 388, 450, -236, 217, -306], [-424, 133, 225, -15, -340, 317, 80, 154, -534, 26, 52, -24, -560, 446, 180, 56, 157, -246, -443, 44, -478, 368, 129, 481, 323, 42, 135, 113, 163, 179, -142, 38, 22, -360, -499, 138, 286, 444, -180, 89, 229, 68, -88, 376, -11, 88, 153, 428, -243, 330, -320, 223, 178, 287, -114, -79, 485, 258, 161, -289, -104, 0, -134, 63], [122, -344, -180, -317, 198, -67, -140, 158, -750, -313, -78, -199, 515, -164, 194, -593, 410, 350, 192, -726, -932, -277, -57, 48, -141, -239, 173, 7, 37, -128, -88, 0, -215, 610, 95, -233, 212, -185, -653, 428, 461, 334, 252, 248, -449, -657, 243, 408, -656, -212, -195, 114, 558, 574, -726, 406, 444, 255, 381, 283, 97, -637, -500, -224], [158, -262, 252, -279, -6, -835, -629, 349, -85, 501, -75, 68, 538, 0, -115, 24, 205, 252, 407, -881, 93, -86, -257, -742, -492, -338, 157, -144, 198, -55, 242, 219, -331, 675, 247, -432, -125, -200, -623, 203, -154, 257, 443, -232, -228, -20, 523, -28, 96, -464, -28, 23, 394, 366, 122, 257, 85, 366, 63, 363, -63, 66, -897, -107], [-110, -111, -26, -12, -89, 15, -82, 9, -99, 10, -48, -136, 1, -105, -168, -66, -190, -39, -120, 63, -97, -182, -67, -99, -180, 64, 3, -185, -149, 15, -15, -147, -106, 15, -84, 8, -76, -68, 17, 19, 28, -113, -56, -52, -94, -77, -88, 43, -126, 7, -140, -162, -60, 10, -50, -53, -106, -145, -93, 46, -185, -66, -92, -1], [-7, -25, -97, -45, -90, -174, -65, -133, -115, 12, -164, -87, -15, -50, 57, 28, 54, 43, 57, 41, 46, -183, 33, 5, -106, -159, -143, -11, -37, -40, -172, -95, -176, -17, -151, -18, -83, -91, 24, -181, -121, 26, 33, -156, -191, 26, 2, -64, 137, -63, -111, -187, -28, -39, -48, -44, -89, -134, 39, 1, 31, -16, -67, 43], [78, 63, 136, 281, -146, 183, -246, 274, -218, 57, 304, -123, -91, 229, 55, 114, 9, -245, -104, 294, 207, 364, 36, -103, 143, -75, 0, 439, 65, 276, 103, 119, 267, 88, -10, 110, 320, 240, 333, 310, -55, -457, -407, 101, -125, 9, -107, 36, -178, 148, 72, 409, 28, 135, 218, -347, 60, -81, 101, -129, 464, -73, -34, -75], [-36, -37, 18, 342, 124, -14, -450, 413, 269, -70, -182, 68, 263, 2, -176, 59, 2, -614, 273, 248, 226, 118, -74, 104, 121, 32, -2, 568, -123, 14, 30, -375, 135, 453, 199, -432, 175, -258, 215, 187, 86, -495, -293, 184, 127, 99, -226, 54, 196, 175, -12, 242, -430, 354, 158, -433, -100, -848, 295, 37, 210, -170, 81, 29], [156, -28, -26, 264, 207, 405, -609, 58, 137, 111, -57, -136, -445, -523, -251, -456, -443, 540, 352, 295, 262, 359, -173, -113, 53, -400, -55, 603, -1439, -51, -175, -86, 51, 585, 345, -178, -380, -223, 234, 257, -138, 146, 251, 272, -235, -17, -348, -315, 512, -530, 94, -233, -273, -109, 216, -82, -451, -481, 55, -90, 266, -15, -392, -346], [133, -88, -309, -334, 279, 59, -180, -21, 161, -412, -412, -181, 780, -139, 16, -447, 334, 168, 4, -206, -81, 38, 243, -414, -136, -333, 245, -367, -523, 276, 394, 38, -353, -26, -113, -111, 78, 186, 21, 234, 180, 463, 292, 264, -15, -520, 305, 251, -925, -167, 292, -8, 360, 279, -241, 390, 233, 207, 248, -40, -108, -226, 229, -254], [-422, -443, -8, -87, -571, 83, 184, -499, -192, -41, -88, 73, 431, 339, -460, 178, -118, -957, 279, 321, -279, 34, 158, -235, 155, -286, -550, -168, -200, -281, -108, -553, 169, -72, -823, 44, 195, 316, -258, -170, 424, -47, -322, 24, 213, 247, 140, -527, 116, 77, 283, 190, 321, -149, 34, -367, 206, -190, 17, 423, 162, 18, -67, -219], [-55, -84, -122, -26, -139, -151, 24, -84, 15, -132, -29, -136, -184, -28, -47, 12, -64, 14, -86, -132, -134, -136, -32, 0, -12, -66, -60, -153, -78, -176, -138, -6, 25, 17, -180, 17, -146, -171, -173, -31, -39, -158, -58, -64, -63, 17, 13, -147, -11, -9, 61, -88, -25, -140, -126, 29, -181, -52, -190, 60, -7, -25, -69, 4], [71, -538, -94, 157, 87, -434, 343, -147, 253, -1084, 358, 141, 137, -599, 131, -221, -261, 23, -377, 302, 140, -33, 169, -107, -255, -136, 180, -162, -557, -245, 131, -1009, -62, -313, -165, -41, -422, -252, -288, -240, -942, -304, -257, 258, -326, 217, 48, -255, 48, 290, -197, -479, -178, 166, -140, -77, -9, 253, -746, 343, 202, 157, 71, -75], [-458, -14, 30, -22, -609, 100, 135, 258, -265, -218, 126, 11, -681, 311, -303, -81, -179, -220, -218, -13, -234, 387, 7, 72, 350, 180, -475, 397, 113, 147, 97, 171, 113, -319, -509, 342, -16, 320, 85, 124, -267, -216, -162, 106, -17, 153, 28, 30, -381, 221, 5, 555, 63, 190, -29, -170, 557, -129, 197, -378, 273, 163, -299, 180], [714, 119, -278, 72, -6, 526, 123, 300, -83, 369, 655, -2, 971, 133, -231, -537, 319, -633, -289, 290, -198, 116, 230, -148, -36, -104, 502, -462, -402, 632, 824, 279, 522, 88, 237, 54, 436, 577, 448, 728, 302, -460, -16, 568, -231, -104, 72, 107, -328, 443, 226, 171, 178, -4, -160, -394, 512, 158, 170, 149, 442, 94, 173, -258], [11, 215, -337, -354, 193, 245, 231, -92, 43, -193, -313, -204, 594, -437, 133, -530, 232, 207, -260, 11, 70, -149, 399, -478, 120, -29, 158, -229, -574, 300, 212, -30, -291, -533, 81, 127, 223, 105, 212, -257, 364, 192, 62, 12, 172, -217, 46, 527, -893, -105, 289, -378, 403, -241, -200, 133, 125, 407, -161, -359, 83, -125, 264, -223]], "layers.2.bias": [-22, -75, -129, 103, 136, 44, 152, 153, 179, -101, 111, -13, 242, 133, 150, 282, -73, 198, -90, 129, -86, -136, 73, -60, -241, 88, 226, -96, 172, 16, 347, 104], "layers.4.weight": [[-412, 285, -428, -1017, 133, -156, -34, -434, 102, 464, -345, -724, -134, -399, 160, -435, -686, 250, -851, -595, -56, 83, 204, 391, 1033, -459, 901, -12, -569, 47, 202, -434], [404, -125, -1, 1018, 17, 398, 378, 461, 3, -190, 1077, 220, 346, -1, -13, 571, 489, -566, 382, 316, 106, 35, -206, -267, -918, 393, -753, -109, 785, -600, 185, 166], [-76, 62, -61, -65, -5, -115, -115, 80, -165, 20, -128, 87, 47, -113, -233, 96, 18, 91, 80, 25, -137, 14, 3, -54, 67, -155, -114, -177, -86, -215, -243, -46], [770, -4, -113, 1055, -182, 396, 211, 194, -176, -272, 921, 1051, 368, 166, 55, 521, 741, -601, 475, 175, -126, 141, -78, -215, -807, 441, -541, 17, 1005, -570, 281, 40], [383, 5, 39, 681, 126, -88, 92, 42, -152, -295, 755, 123, -66, -43, 40, 287, 460, -399, 186, 326, -136, -171, 11, -209, -568, 262, -471, -53, 819, -571, 55, 127], [395, 173, -163, 1083, 156, 182, 233, 151, 260, -144, 853, -178, 278, 287, 165, 625, 274, -686, 768, 557, -39, 137, -15, -98, -611, 117, -656, 12, 768, -691, -42, 7], [668, 157, -106, 910, 15, 177, 34, 130, 202, -248, 721, 922, 242, 185, 353, 503, 880, -29, 265, 493, -125, 85, 143, -290, -995, 209, -739, -102, 828, -71, 100, 152], [414, 25, -69, 813, 271, 95, 169, 445, 69, -82, 831, 1092, 107, 192, 378, 410, 814, 7, 273, 635, 114, 50, 160, -511, -797, 97, -864, -44, 794, 4, 50, 205], [-346, 36, -302, -906, 205, -218, 27, -500, 156, 454, -398, -557, -88, -571, -18, -539, -736, 169, -894, -445, -51, -130, 125, 459, 988, -390, 638, -117, -599, 131, 298, -644], [341, -42, -101, 699, 88, 28, 20, 223, 45, -322, 851, 733, 72, 282, 246, 453, 701, -75, 218, 408, 202, 179, 305, -222, -683, 230, -541, -91, 960, 141, -61, 133], [-105, -466, -857, -873, -739, -320, -658, -377, -1165, -567, -190, -44, -515, -539, -1422, -389, -755, 370, 639, -30, 106, 21, -1124, -789, -274, 534, -888, 54, -200, 505, -490, -249], [-629, 26, -562, -1032, 109, 243, -92, -543, 86, 287, -513, -642, 60, -357, 130, -367, -612, 238, -534, -388, 100, -17, 179, 473, 820, -440, 793, -194, -605, -13, 256, -483], [-531, 200, -338, -867, -17, -4, 147, -487, 3, 391, -389, -671, -171, -144, 111, -400, -785, 241, -657, -491, -18, -82, 256, 286, 1049, -407, 1012, 42, -769, 151, 242, -234], [-513, 119, -341, -1096, 99, 32, 45, -499, 39, 481, -339, -697, -156, -394, 156, -585, -651, 122, -809, -514, -4, 86, 201, 391, 938, -330, 942, 65, -665, 270, 342, -365], [-528, 268, -458, -1029, 166, -149, -125, -281, 51, 424, -358, -670, -83, -472, 102, -417, -687, 165, -727, -439, -82, 39, 68, 497, 857, -411, 535, -148, -643, 263, 337, -569], [771, -177, -126, 1038, 100, 414, 67, 247, -131, -301, 802, 988, 177, 111, 200, 730, 721, -496, 553, 430, -95, -70, -29, -358, -873, 348, -774, -12, 747, -265, 23, 245]], "layers.4.bias": [354, 121, -226, 208, 129, 108, 76, 153, 378, -150, 156, 294, 117, 202, 369, 300], "layers.6.weight": [[596, -510, -142, -335, -302, -696, -193, -427, 638, -276, 1536, 805, 478, 622, 676, -614], [-501, 582, -111, 568, 303, 761, 336, 148, -608, 259, -1474, -389, -515, -581, -508, 239]], "layers.6.bias": [182, -333]}