{"layers.0.weight": [[-123, -348, -86, 141, -284, 320, -228, 169, 248, -29, 126, -277, 79, 268, 131, 230, 139, 257, 344, 461], [-356, -187, 15, 228, 56, -283, 266, -540, 431, -55, 17, -286, -192, 234, -147, -50, -440, 415, 277, 687], [391, -183, 29, -140, -266, -45, 43, -181, -135, 9, -58, -278, -422, 102, -298, -598, -302, 421, 100, -221], [142, 434, 37, 140, 84, -19, 49, -198, -13, 299, 21, -115, 686, 0, -37, 280, 0, -161, 202, -137], [-484, -294, -456, 395, 357, -226, -339, -71, 107, -458, -323, 81, -60, -177, 6, 235, -108, 163, -120, -114], [-302, -106, 225, 90, 216, 109, 20, 106, 1013, -263, -98, -293, 251, -375, 2, -237, 294, -219, -72, 365], [-310, 34, -252, -36, 223, -376, 176, -246, 337, 12, 40, 258, -458, -236, 286, 104, -32, -137, 198, -73], [312, 232, -122, -478, 445, 134, -25, -206, -329, 75, 202, -327, -451, 533, -187, -262, -440, -264, 23, -236], [-554, 10, -33, 111, -3, -550, -36, -73, 96, 408, -314, -351, -212, -26, 204, 484, 152, 110, -167, -171], [357, -59, 616, -182, 331, -221, 121, 64, -208, 132, -357, 170, -21, -358, -191, -140, -405, 256, 335, -135], [164, 562, -125, -277, 203, 43, 126, -63, 274, 383, -226, 49, 95, -54, -268, 8, 267, -148, -40, 45], [45, 261, 276, -336, -29, -353, -65, -111, -12, -275, -109, -181, -237, -61, -208, 357, 109, 205, -511, -48], [-352, -171, 54, -155, 136, 639, 201, 157, 123, 43, -96, 234, -819, -137, 119, 108, 154, 91, 273, 278], [429, -629, -278, -391, 214, -234, 109, -467, -47, -367, 9, -32, -385, -223, 168, 134, 367, -79, 162, 272], [356, -276, 348, -69, 138, 463, 37, -287, -131, -278, -133, 85, 85, 131, 28, -253, -246, 97, -239, 184], [22, -669, -117, -169, -129, -185, -204, 12, -130, 261, 0, 8, -786, 66, -246, 119, 236, -112, 33, -194], [269, -80, 165, -235, 454, 287, -129, -223, 87, -362, -259, -248, 219, -359, -294, -547, -193, 85, 75, -496], [462, -152, 5, -374, 304, 410, 125, 44, -24, -638, 72, -115, 70, 314, -31, -32, -79, 426, 38, -294], [-78, -216, 236, 85, -230, 255, 215, -527, 289, 32, 603, 412, 190, 524, -181, -207, 342, -248, 234, 286], [-261, -487, 246, 346, 206, -356, 1, -138, -135, -463, 257, 248, 236, -305, 196, -204, -83, 157, 5, -366], [-371, -207, 158, 591, 319, -43, 186, 111, 355, 18, 164, 12, 347, -251, -212, 6, -159, 199, -237, 29], [156, 106, -66, -393, -48, -153, 83, 20, -324, -479, -200, -363, -255, -186, 104, -570, 183, -512, -64, 229], [-148, -563, 57, 148, 536, -232, -191, -45, 78, -408, 608, 314, -185, -478, -41, 391, 241, -294, 283, 380], [423, -65, -279, -467, -76, -376, -313, -172, 351, -336, -128, 123, -172, -6, 83, 361, -50, -154, 375, -245], [80, 404, 372, -217, 331, -208, 7, -416, 139, -374, -105, 93, -243, -285, 494, -304, -28, -149, 19, -532], [-96, -217, 6, -358, 42, -456, 148, 228, -36, -447, 18, -335, -728, 262, 18, 34, 311, 208, 48, 104], [-260, -38, 226, 285, -16, -5, 189, 68, -498, -13, -372, -340, -420, 322, 290, 193, -493, -371, 199, -133], [139, 103, -223, 157, -66, 48, 116, 171, 10, -410, 19, -173, 438, 63, 272, 117, -47, 163, 23, -162], [-75, -154, -113, -246, 258, 137, 15, -103, 109, 153, -260, -62, -1460, -46, -173, 34, 60, -105, -87, 200], [-139, -347, 8, 10, 812, -47, 297, -131, -87, 211, 38, -145, -251, 406, -519, -161, -92, 87, 503, -563], [-229, 62, 361, -370, -306, -27, -307, -495, -337, -368, 529, 173, -385, 156, 52, -237, 275, -11, -498, -63], [-61, -245, -310, 155, 250, -29, 352, -264, 100, 194, 357, -348, -443, 42, -184, -317, -219, 239, 257, 77], [364, 545, 42, -45, 184, -197, -352, -119, -48, 191, -14, 75, 418, -377, 165, 11, -442, 29, 53, 219], [197, 139, -33, 292, -21, -210, -19, 31, 23, -37, 45, 25, 671, -51, -255, 112, 96, 11, 147, 91], [-546, -244, -235, 280, 353, 289, 505, -534, -260, -172, -29, -204, 345, -135, 155, -297, 222, -270, -224, 222], [-247, -183, -153, 25, -22, -262, 671, -321, -402, -103, -265, 367, -363, -132, 117, 82, 463, -440, -97, 207], [320, -454, 197, -113, -695, 67, 224, -20, 138, 224, -361, -567, -179, 225, -355, 295, -114, 257, 196, -106], [-49, -255, -133, -180, 285, 126, -218, 376, -515, -305, 817, -383, -241, -648, 212, -45, -677, 114, 185, 381], [-169, -223, 658, 392, -513, -118, 15, 200, 312, -240, -105, -34, 206, 658, -98, 168, -364, -318, -133, 27], [583, 220, -303, -66, 270, -97, -311, -370, 383, -386, -215, 284, 459, 34, -381, 24, -34, 635, 85, -289], [-200, -137, 566, 184, -128, 551, 44, -527, -5, -35, -232, -475, -213, 423, 103, -148, -509, 621, -157, 214], [231, -273, -77, -68, -127, 357, -142, -75, 280, -542, -80, -322, 436, -352, 73, 21, -123, -184, 51, 221], [-11, -322, -40, -204, 65, 704, 34, -12, 46, -280, -97, -78, 526, 76, -145, 57, 12, -174, 191, 137], [388, -57, 176, -215, -160, 867, -335, 429, -83, 35, -164, -6, -258, 382, -105, 244, 462, 231, -27, -238], [-460, -726, 180, 74, 22, -186, -69, -112, 106, -36, -260, 97, -38, 1, -294, -300, -223, 421, -233, 174], [414, 5, 53, 97, 72, -402, 140, 60, 127, 75, -54, 67, -576, 4, -419, 2, 10, -112, 24, -88], [-182, -380, -250, -26, -661, 614, 237, 28, -182, -69, 206, -196, 218, -188, -235, 129, 321, 422, -210, -139], [-244, -141, -345, 50, 118, -10, 38, -370, 285, 44, -403, -69, -289, 238, -85, -419, -70, 629, -16, -353], [480, 305, 88, -371, -149, -830, -198, 19, 160, -428, 45, -64, -811, -70, -407, 137, 264, -69, 262, 51], [211, 342, -473, -153, -357, -223, -127, -47, 676, -73, 87, -45, -393, 499, -228, -324, 283, 435, -10, -178], [-71, -298, -257, 195, 56, -291, -262, 362, -40, -18, -162, 245, 69, -270, -252, 125, 196, -585, -146, -68], [472, 49, 126, -304, 282, 212, 156, -309, -211, -366, 201, -133, -89, 418, -219, -5, 69, -211, -312, 716], [267, -271, -69, -75, -3, 562, 98, -103, 161, -262, 85, 138, 352, -219, -630, -24, -204, -260, 116, 221], [75, -143, -98, -282, 235, 273, -167, -411, 33, 195, -436, -425, -227, -150, -295, 222, 415, -325, 212, 67], [-22, -5, 37, 330, -225, -100, 278, -426, -94, 345, -201, 157, 372, 120, -103, -12, -1, 113, -336, 181], [46, -298, -124, -225, 149, 689, 107, -97, 48, -150, 91, 76, 366, 55, -233, 115, -33, -91, 128, 95], [387, -315, 8, 76, 352, 473, 97, -196, 133, -574, 371, 50, 253, 354, -301, 176, -101, -216, -153, 10], [343, -503, -4, 160, -78, 662, -57, 88, -108, -490, -145, -25, 469, -30, -287, -14, 91, 49, -97, -39], [516, -27, 155, -362, -163, 314, 72, -211, 235, -339, 138, -95, -380, -502, -439, 433, 42, -381, -36, 69], [666, -27, 458, -564, -382, 161, 252, 67, 510, -174, 38, 150, -316, -572, -404, -193, -120, 36, -153, -126], [300, 264, -394, -327, -371, -163, 263, -7, -270, -507, 103, 105, 195, -359, -86, 97, -85, 218, -147, 474], [338, 90, -403, 244, -237, -153, 345, 78, -46, 351, -129, -140, -485, -160, -424, -95, -262, 584, 32, -317], [-175, -251, 624, 199, -307, -248, -389, -222, 303, 181, -457, -250, -398, 1, 69, -494, 499, -47, 206, -157], [466, -148, -186, -397, 315, -78, -39, -144, -32, 53, 457, -387, -603, -218, -214, -39, -129, 196, -279, 218]], "layers.0.bias": [-266, 253, 110, -229, -153, -295, 176, -301, 122, -85, -138, 127, -721, -117, -243, -52, 167, -382, -360, -90, -66, -90, 55, -239, -123, 379, -184, -516, 333, 6, -427, -153, 45, -522, -322, 235, -123, -142, -17, -402, -373, -391, 23, -19, 83, 377, 50, -286, -17, -305, 258, 107, -39, -317, -50, -1, 293, 174, -47, -93, -377, 37, -28, 122], "layers.2.weight": [[412, -304, -407, -128, 54, -14, -94, 283, -500, -282, -48, -130, 552, -69, 148, -468, 397, -68, -116, -139, -264, -173, -39, -422, -434, -391, 464, -208, -232, -245, 422, 113, -160, 395, 198, -288, 324, 109, -445, 332, 386, 302, 127, 161, -682, -640, 279, 346, -244, -314, -35, 215, 325, 377, -675, 139, 251, 194, 297, 396, -96, -550, -108, -292], [-453, 46, 11, -13, -182, 311, 24, 300, -397, 64, 67, -29, -388, 63, -20, 6, -299, -473, -207, -81, -175, 290, -326, -110, 213, 173, 71, 351, -89, 244, -51, 117, 275, 53, 140, -3, 8, 106, 146, 29, 115, -525, -371, 268, -158, 94, -275, -283, -198, 423, 127, 333, -241, 107, 183, -315, -49, -120, -127, -233, 405, 127, -103, -253], [166, 174, -452, -431, 326, -140, 165, -207, 361, -209, -302, -242, 196, -448, 9, -137, 52, -284, -118, 136, 4, 111, 369, -484, 79, -35, 129, -528, -409, 49, 175, 93, -191, -360, -139, -29, 95, 325, 123, -590, 197, 193, 304, 142, 104, -358, -5, 399, -1008, -172, 228, -229, 310, -580, -153, 131, 80, 2, 89, -2, -433, 10, 416, -182], [562, -57, -212, 334, -242, -602, 32, -480, 386, -649, 206, 106, 591, 146, 254, 193, 116, 175, -89, -671, -339, -614, -354, -175, -643, -91, 419, -979, -395, -415, -507, -141, 471, -106, -113, 49, -929, -136, -755, 203, -844, 54, -205, -349, -25, -537, 6, -18, -528, 243, -165, 22, 226, 178, 254, -191, -45, 416, 236, 106, -110, -1083, -302, -559], [232, 110, -2, 101, 249, 208, -172, 266, -355, 175, 134, -78, 81, 247, 156, 219, -164, -6, 37, 273, -89, 311, 76, 98, -173, 138, -15, 343, -185, 255, 106, -167, 114, -187, 43, -33, -52, 137, 425, 86, -121, -260, -270, 37, -61, 158, -298, -81, -124, 356, 38, 326, -94, 47, -105, -199, 114, -294, -103, -137, 482, -20, 25, -154], [-228, 82, -293, -286, 30, -130, -72, -449, -29, -68, -468, -45, 310, 98, -212, -517, 74, -257, -296, 15, 17, -211, 301, -373, 227, -272, 218, -380, -712, 159, 345, 161, -273, -261, -61, 185, 116, -44, 185, -429, -10, 130, 37, 10, 98, -110, 36, 278, -486, 131, 232, -411, 173, -224, -14, 58, 315, 170, 58, -71, 56, 53, 469, -227], [375, -111, -410, -297, -18, -115, 2, -79, 15, -28, 8, -351, 429, -250, -69, -207, 510, 84, -86, -68, -71, 143, 183, -406, 111, 135, 152, -267, -881, 290, 595, 107, -124, -223, 89, -11, 181, 117, 28, 124, 298, -121, 131, 242, 37, -179, 393, 227, -888, 447, 91, -381, 204, -262, -24, -72, 167, 471, -50, -206, 116, 59, 96, -304], [41, 234, -803, -141, -15, 151, 35, -981, 90, -114, -212, -239, 571, -173, 72, -652, 111, -583, -439, 74, -168, -80, 408, -464, 94, -268, 151, -489, -686, 169, 348, -82, -317, -411, 21, 236, 74, 94, 171, -323, -15, 233, 176, 47, 210, -173, 48, 151, -412, -102, 150, -189, 479, -364, 95, 280, 234, 421, 313, -420, -132, -222, 415, -458], [241, 126, 110, -25, -13, 318, -145, -26, -222, 165, -11, -34, -266, 115, 49, 131, -117, -269, -212, 251, 51, 387, 76, 85, 164, 91, -94, 436, -134, 289, -8, -60, 213, -8, -109, -19, 332, 31, 338, 276, -62, -287, -350, 200, 38, 196, -93, 25, -390, 362, -2, 288, -206, 141, 71, -281, -42, -77, -58, -166, 448, 5, -182, -356], [-99, 178, 89, -73, -238, 213, -107, 363, -238, 36, 258, 19, 277, -240, -297, -17, -201, -537, -565, 207, -236, -115, -84, -13, 53, 114, -32, 376, -36, 313, -122, 351, 27, -150, -338, 207, 109, 81, 127, 313, 177, -580, -498, 63, -280, 164, -180, 296, -137, 544, 14, -85, -5, 20, -15, -273, 337, -66, -230, -289, 227, 33, -52, -254], [115, -20, -365, -206, 232, -485, 157, -408, -155, -190, -53, -402, 313, -26, 195, -460, -102, 194, -431, -259, 205, -29, -592, 307, -201, 30, 249, 67, -14, 140, -105, -117, -373, -832, 172, 256, -205, -313, -148, 43, 291, -79, 157, 251, 77, 115, 23, 31, 194, 242, 29, -238, 86, 10, 41, 150, -7, -300, 163, 250, 153, -339, 100, -716], [-1499, -319, -328, -2119, -1603, -723, 161, -735, -48, -399, -169, 335, -2028, 415, -157, -250, 244, 39, -1983, -981, -836, -519, 214, 324, 417, 284, -405, -1175, -7, -628, 718, -512, -1148, 17, -160, 136, -151, -1437, -959, -1313, -99, -1688, -613, -2159, -458, 62, -1380, -226, 435, -1110, 262, 50, -563, 99, -828, -1189, -320, -261, 240, 193, -1442, 208, -53, 345], [18, 173, -177, -344, 20, -31, 8, -132, 45, -169, -230, -431, 417, -130, -118, -421, 317, -35, -363, 9, -95, -2, 392, -529, 267, -265, 259, -362, -917, 324, 354, -17, -219, -310, 59, 202, 86, 147, 52, -235, 136, 177, 93, -45, 159, -228, 234, 298, -697, -89, 166, -218, 410, -438, -13, 63, 311, 365, 149, -587, 80, -210, 343, -292], [-60, 104, -364, -517, 190, 177, 189, -700, 210, -41, -199, -274, 37, -132, 44, -389, 217, -444, -74, 72, 51, -127, 359, -19, 222, -185, 137, -390, -801, 265, 312, -50, -315, -477, 119, 102, 30, 75, 117, -416, -36, 43, 128, 214, 285, -328, -21, 304, -652, -216, 120, -479, 273, -423, -13, 326, 191, 446, -273, -847, -78, 60, 377, -308], [136, -67, -459, -148, 112, 287, 209, 124, -168, 96, 86, 342, 775, -144, -369, 155, -7, -276, -366, -110, -164, 53, 315, 187, -197, 265, 64, -255, -279, 115, 915, 224, -13, -14, -106, -199, 356, 124, 244, 280, 87, 73, 10, 228, -264, 395, 70, -59, 792, 402, 44, -158, -178, 72, 140, -291, 214, 26, -3, 319, -156, 41, 30, -144], [106, 223, 26, -296, -80, 142, 354, -1105, -1, 31, 94, -137, -121, -329, 93, -188, 213, -254, 72, 170, 40, -35, 221, -528, 118, -210, 121, -335, -512, -106, 167, -28, 176, -417, 59, 170, -484, 297, -139, -556, 36, 29, 162, -126, 32, -258, -11, -105, -546, 135, -92, -409, 154, -563, -115, -27, -14, 221, -75, -540, -550, 79, 169, -70], [249, -449, -345, -316, 13, 49, -336, 263, -722, -405, -35, -319, 620, -93, 32, 109, 187, -58, 477, -379, -799, -189, -135, -650, -669, -656, -376, -46, 28, 8, 216, 500, -307, 231, 259, -559, -194, 138, -19, 328, -93, 395, 175, -47, -487, -64, 252, 72, 99, -80, -84, 210, 221, 406, -445, 207, 347, 211, 202, 501, 401, -269, 169, -251], [-439, 160, 214, -7, -224, 224, 77, 133, -505, 4, -11, -53, -600, 447, 163, 58, 148, -117, -455, -6, -514, 420, 35, 490, 348, 119, 153, 208, 170, 177, -154, 58, -13, -434, -436, 187, 253, 409, -149, 101, 343, 78, -97, 423, -35, 79, 197, 444, -232, 358, -317, 281, 132, 311, -136, -80, 368, 206, 151, -258, -47, -31, -128, 54], [117, -324, -140, -301, 106, -106, -211, 188, -647, -390, -91, -128, 516, -157, 229, -581, 346, 351, 240, -761, -1014, -291, -91, -24, -199, -208, 134, 72, 65, -127, 56, 91, -252, 688, 124, -256, 195, -157, -645, 409, 527, 285, 286, 337, -272, -607, 311, 532, -513, -192, -194, 103, 489, 508, -731, 433, 447, 249, 390, 282, 108, -590, -510, -176], [162, -248, 268, -338, -25, -806, -555, 343, -74, 521, -47, 99, 485, 7, -70, -36, 269, 230, 383, -908, 61, -167, -216, -717, -412, -369, 114, -72, 197, -52, 282, 224, -263, 610, 103, -473, -139, -301, -661, 306, -83, 228, 423, -238, -213, -26, 456, 142, 55, -485, -94, 46, 368, 356, 91, 250, 132, 314, 78, 378, -63, 61, -944, -97], [-110, -111, -26, -12, -89, 15, -82, 9, -99, 10, -48, -136, 1, -105, -168, -66, -190, -39, -120, 63, -97, -182, -67, -99, -180, 64, 3, -185, -149, 15, -15, -147, -106, 15, -84, 8, -76, -68, 17, 19, 28, -113, -56, -52, -94, -77, -88, 43, -126, 7, -140, -162, -60, 10, -50, -53, -106, -145, -93, 46, -185, -66, -92, -1], [-7, -25, -97, -45, -90, -174, -65, -133, -115, 12, -164, -87, -15, -50, 57, 28, 54, 43, 57, 41, 46, -183, 33, 5, -106, -159, -143, -11, -37, -40, -172, -95, -176, -17, -151, -18, -83, -91, 24, -181, -121, 26, 33, -156, -191, 26, 2, -64, 137, -63, -111, -187, -28, -39, -48, -44, -89, -134, 39, 1, 31, -16, -67, 43], [50, 56, 106, 312, -204, 95, -164, 272, -286, 71, 303, -154, -38, 167, 0, 108, -29, -241, -62, 226, 199, 357, -57, -83, 165, -114, 6, 431, 32, 263, 70, 111, 222, 103, -101, 154, 301, 189, 320, 300, -119, -514, -455, 113, -173, 1, -76, -86, -177, 185, 42, 395, 10, 110, 219, -368, -4, -115, 75, -124, 470, -80, -66, -104], [-21, -40, -24, 366, 124, -41, -424, 388, 239, -63, -223, 24, 118, -204, -190, 18, -59, -588, 257, 263, 264, 142, -154, 66, 44, 33, 11, 631, -147, 2, -55, -346, 75, 424, 157, -399, 121, -210, 197, 133, 75, -567, -343, 206, 112, 82, -246, -13, 188, 218, -39, 210, -432, 361, 129, -454, -124, -835, 177, 20, 265, -200, 57, 15], [131, 36, -36, 258, 174, 415, -537, -98, 94, 169, -95, -197, -496, -401, -260, -434, -365, 572, 363, 304, 283, 366, -243, -170, -32, -315, -57, 598, -1430, -45, -296, -101, 72, 542, 234, -117, -364, -178, 193, 262, -249, 257, 185, 254, -187, 40, -396, -416, 406, -561, 107, -250, -240, -68, 203, -131, -478, -554, 67, -207, 197, 4, -437, -463], [158, -7, -284, -321, 150, 85, -211, -9, 131, -406, -314, -167, 776, -140, 53, -473, 308, 165, 65, -230, -57, 29, 282, -402, -140, -321, 204, -369, -532, 214, 424, 29, -313, -2, -83, -143, 97, 204, 75, 190, 271, 464, 329, 299, 8, -477, 314, 275, -898, -156, 294, 15, 395, 218, -204, 441, 280, 193, 258, -39, -79, -239, 237, -256], [-369, -482, 85, -141, -510, 60, 148, -508, -204, 6, -67, 28, 570, 287, -568, 220, -136, -962, 262, 332, -241, 66, 79, -226, 87, -242, -527, -194, -188, -293, -133, -529, 105, -71, -803, 75, 241, 308, -290, -192, 287, -52, -383, 67, 241, 266, 197, -506, 193, 197, 258, 154, 330, -92, 75, -381, 61, -143, -18, 449, 124, 91, -22, -211], [-55, -84, -122, -26, -139, -151, 24, -84, 15, -132, -29, -136, -184, -28, -47, 12, -64, 14, -86, -132, -134, -136, -32, 0, -12, -66, -60, -153, -78, -176, -138, -6, 25, 17, -180, 17, -146, -171, -173, -31, -39, -158, -58, -64, -63, 17, 13, -147, -11, -9, 61, -88, -25, -140, -126, 29, -181, -52, -190, 60, -7, -25, -69, 4], [42, -440, -39, 144, 30, -443, 251, -83, 250, -923, 427, 95, 158, -853, 302, -260, -269, -125, -324, 224, 89, -124, 96, -194, -361, -213, 258, -201, -599, -326, 67, -1119, -123, -330, -139, -121, -507, -297, -442, -236, -720, -447, -158, 267, -332, 213, 45, -173, -123, 274, -178, -560, -481, 22, -82, -132, -19, 261, -945, 175, 87, 198, 38, -443], [-473, -15, 90, -24, -538, 100, 127, 223, -293, -271, 82, -5, -748, 329, -349, -105, -180, -133, -236, -66, -217, 406, -108, 91, 343, 231, -527, 504, 111, 154, 96, 209, 41, -304, -464, 299, -2, 259, -8, 102, -134, -199, -174, 147, -78, 118, 118, 98, -378, 292, -16, 431, 39, 222, -7, -174, 505, -55, 156, -348, 298, 163, -308, 173], [667, 98, -290, 102, -23, 454, 195, 312, -144, 398, 658, -33, 1018, 75, -275, -513, 305, -626, -268, 223, -204, 141, 155, -125, 6, -137, 536, -462, -423, 636, 787, 275, 485, 100, 172, 83, 448, 523, 431, 717, 186, -432, -62, 586, -284, -85, 93, -33, -307, 489, 230, 143, 152, -6, -151, -359, 429, 127, 139, 156, 433, 107, 150, -286], [28, 181, -275, -365, 140, 212, 187, -89, 33, -270, -332, -236, 623, -451, 130, -494, 250, 60, -257, 29, 41, -169, 465, -441, 170, -88, 113, -339, -617, 287, 246, -144, -247, -479, 96, 71, 229, 85, 224, -242, 318, 172, 49, 18, 146, -230, 15, 552, -917, -132, 293, -419, 427, -333, -197, 120, 105, 377, -190, -424, 89, -137, 270, -269]], "layers.2.bias": [-50, -62, -122, 125, 156, 40, 162, 153, 186, -76, 77, 76, 268, 171, 170, 311, -38, 203, -114, 115, -86, -136, 73, -53, -238, 101, 243, -96, 135, 6, 351, 104], "layers.4.weight": [[-383, 307, -481, -1013, 111, -136, -57, -422, 102, 482, -267, -881, -188, -462, 121, -474, -662, 249, -846, -607, -56, 83, 201, 369, 1031, -445, 927, -12, -559, 43, 182, -470], [327, -107, -44, 1030, 53, 385, 401, 443, 46, -158, 1031, 220, 409, -4, 67, 622, 365, -535, 357, 358, 106, 35, -189, -282, -910, 376, -729, -109, 770, -590, 240, 169], [-76, 62, -61, -65, -5, -115, -115, 80, -165, 20, -128, 87, 47, -113, -233, 96, 18, 91, 80, 25, -137, 14, 3, -54, 67, -155, -114, -177, -86, -215, -243, -46], [698, 2, -110, 1049, -127, 384, 237, 171, -152, -241, 886, 1136, 432, 186, 135, 571, 648, -611, 485, 212, -126, 141, -74, -201, -778, 428, -544, 17, 1004, -561, 293, 53], [263, 13, 13, 694, 136, -108, 109, -33, -101, -296, 702, 123, -22, -29, 94, 329, 281, -448, 114, 292, -136, -171, 10, -249, -601, 199, -444, -53, 811, -629, 86, 129], [266, 186, -166, 1097, 171, 156, 221, 123, 285, -159, 802, -178, 311, 272, 228, 664, 81, -788, 640, 567, -39, 137, -17, -94, -609, 35, -651, 12, 769, -760, -27, 11], [601, 136, -111, 908, 42, 156, 61, 104, 218, -257, 672, 1077, 297, 196, 403, 551, 841, -21, 293, 502, -125, 85, 145, -281, -964, 191, -758, -102, 828, -46, 130, 160], [346, 3, -64, 811, 298, 72, 195, 417, 88, -92, 782, 1248, 158, 209, 427, 456, 775, 15, 302, 643, 114, 50, 162, -496, -765, 77, -894, -44, 794, 29, 80, 216], [-305, 58, -368, -902, 182, -214, 4, -497, 154, 473, -320, -699, -145, -644, -53, -566, -710, 174, -878, -457, -51, -130, 126, 434, 983, -374, 681, -117, -579, 131, 281, -698], [273, -63, -121, 697, 115, 14, 54, 199, 61, -332, 802, 888, 135, 289, 297, 504, 662, -66, 247, 416, 202, 179, 309, -241, -654, 212, -544, -91, 960, 166, -30, 140], [-101, -346, -742, -821, -708, -316, -755, -376, -1221, -449, -311, -44, -697, -718, -1411, -432, -656, 363, 612, 24, 106, 21, -1054, -699, -468, 528, -951, 54, -194, 465, -493, -176], [-603, 48, -613, -1028, 87, 273, -122, -519, 79, 305, -419, -798, 10, -411, 90, -404, -592, 220, -628, -399, 100, -17, 179, 454, 809, -433, 822, -194, -595, -26, 226, -519], [-493, 221, -394, -863, -39, 18, 115, -471, -4, 404, -311, -828, -231, -210, 66, -447, -761, 221, -754, -502, -18, -82, 252, 265, 1046, -403, 1020, 42, -764, 132, 213, -273], [-473, 142, -395, -1092, 78, 56, 15, -483, 32, 494, -262, -854, -213, -459, 110, -631, -628, 106, -899, -524, -4, 86, 199, 372, 936, -324, 953, 65, -656, 251, 315, -400], [-491, 291, -512, -1025, 149, -131, -154, -264, 44, 439, -282, -811, -133, -534, 62, -438, -663, 148, -831, -449, -82, 39, 70, 480, 849, -406, 567, -148, -624, 247, 311, -618], [698, -179, -112, 1034, 147, 352, 95, 183, -108, -287, 769, 1145, 225, 127, 259, 778, 738, -436, 585, 438, -95, -70, -28, -359, -887, 330, -799, -12, 747, -153, 60, 256]], "layers.4.bias": [340, 167, -226, 258, 131, 99, 93, 172, 367, -133, 119, 281, 97, 184, 359, 326], "layers.6.weight": [[586, -487, -142, -309, -247, -681, -206, -442, 635, -285, 1492, 794, 453, 605, 668, -607], [-491, 558, -111, 542, 248, 745, 348, 163, -605, 268, -1430, -378, -490, -564, -501, 232]], "layers.6.bias": [205, -355]}