{"layers.0.weight": [[-185, -407, -44, 238, -301, 233, -189, 222, 287, 38, 108, -343, 43, 261, 56, 117, 102, 331, 284, 331], [-300, -76, 31, 188, -104, -319, 201, -532, 431, -54, 112, -337, -132, 289, -107, -128, -380, 544, 163, 704], [369, -205, 55, -141, -194, -15, 97, -276, -97, -3, -281, -285, -410, 165, -274, -573, -255, 433, 81, -178], [74, 419, 76, 147, 133, 20, 66, -174, -19, 293, 18, -63, 668, 45, 29, 268, -26, -168, 196, -138], [-487, -302, -487, 362, 281, -172, -331, -144, 6, -506, -320, 1, -50, -34, 59, 273, -85, 110, -86, -100], [-304, -176, 221, 49, 298, 28, 13, 45, 945, -348, -152, -276, 117, -390, -7, -180, 266, -164, -143, 294], [-345, 70, -273, -4, 144, -353, 235, -184, 394, 80, 110, 238, -437, -210, 313, 226, 0, -72, 101, -99], [272, 207, -120, -417, 452, 62, -131, -132, -435, 56, 168, -225, -440, 482, -188, -330, -434, -206, 18, -223], [-518, 85, -65, 22, -116, -561, -126, 13, 141, 327, -304, -426, -231, -46, 253, 409, 144, 161, -202, -124], [182, -103, 547, -159, 180, -202, 145, -14, -224, 122, -400, 97, -25, -282, -103, -204, -365, 293, 278, -136], [92, 477, -125, -238, 293, 41, 100, 0, 252, 400, -239, 114, 105, -108, -243, -85, 181, -182, -40, 82], [64, 272, 275, -442, 11, -313, -105, -93, 12, -353, -82, -110, -310, -61, -127, 328, -19, 196, -509, -4], [-353, -181, 63, -160, 150, 651, 184, 183, 49, 38, -165, 328, -803, -124, 121, 42, 78, 19, 297, 305], [375, -655, -229, -395, 121, -194, 125, -448, -72, -386, 105, 17, -486, -290, 241, 179, 301, -10, 177, 293], [274, -263, 276, 15, 178, 455, 97, -224, -140, -184, -252, 37, 202, 260, 27, -218, -155, -50, -226, 235], [17, -673, -102, -178, -104, -154, -128, -2, -63, 254, 84, 49, -792, 102, -186, 49, 226, -117, 103, -80], [266, -92, 126, -248, 350, 247, -241, -208, 139, -377, -84, -251, 223, -396, -349, -547, -221, 33, 89, -528], [521, -153, 141, -328, 380, 331, 108, 222, -83, -603, 185, -112, 109, 392, -75, 83, 59, 527, 114, -240], [-193, -273, 142, 185, -142, 199, 147, -487, 274, 93, 544, 439, 203, 412, -194, -120, 356, -268, 264, 250], [-233, -434, 247, 393, 199, -403, 18, -121, -83, -419, 280, 166, 256, -263, 166, -216, -130, 124, -74, -406], [-513, -159, 206, 648, 173, 19, 134, 87, 286, 9, 152, -38, 406, -273, -74, -55, -63, 165, -151, -27], [68, 65, 25, -365, -35, -195, 166, 4, -254, -503, -333, -282, -302, -187, 111, -497, 226, -523, -35, 158], [-124, -570, 186, 168, 506, -278, -217, -34, -65, -375, 621, 292, -196, -435, -136, 410, 292, -181, 313, 280], [435, -23, -197, -461, -154, -374, -254, -108, 436, -338, -14, 64, -117, 87, 80, 409, -161, -204, 332, -132], [134, 405, 403, -221, 326, -215, 150, -395, 117, -346, -70, 78, -350, -189, 465, -220, -56, -105, -77, -518], [-35, -240, 61, -338, 56, -477, 37, 257, -30, -429, 155, -320, -801, 211, -71, 43, 293, 159, 29, 116], [-295, -44, 154, 232, -106, -55, 280, 43, -468, -109, -452, -209, -464, 303, 294, 168, -431, -370, 224, -168], [140, 116, -224, 139, -132, 38, 75, 204, -23, -456, -23, -101, 441, -14, 268, 45, 135, 113, -7, -139], [-82, -187, -115, -217, 268, 137, 21, -141, 95, 174, -301, 58, -1406, -165, -277, -45, 146, -107, -6, 209], [-120, -254, -75, -8, 896, -45, 267, -103, -149, 235, 13, -246, -227, 472, -500, -185, -75, 183, 438, -516], [-247, 76, 402, -323, -318, 74, -208, -427, -393, -234, 626, 301, -258, 167, 44, -306, 274, -17, -517, -87], [-18, -207, -491, 91, 170, -2, 286, -229, -60, 138, 299, -511, -402, 39, -168, -426, -158, 314, 162, -23], [346, 560, 20, -13, 269, -243, -361, -171, -110, 213, -56, 81, 447, -322, 137, 2, -419, 40, 4, 181], [128, 156, -61, 267, -99, -135, -84, -69, 70, -62, 34, 35, 679, -97, -126, 80, 96, -9, 121, 13], [-605, -185, -270, 250, 401, 363, 555, -424, -346, -223, 23, -330, 431, -3, 282, -316, 140, -219, -304, 179], [-205, -91, -30, 51, -31, -257, 673, -351, -359, -52, -188, 425, -293, -51, 116, 148, 469, -421, -57, 232], [362, -423, 177, -199, -583, 116, 334, -148, 183, 163, -307, -495, -188, 109, -335, 337, -20, 143, 224, -156], [-20, -236, -212, -144, 329, 139, -324, 345, -603, -209, 802, -515, -361, -557, 181, 81, -730, 222, 172, 334], [-212, -181, 624, 422, -494, -219, -105, 93, 171, -261, -45, 17, 255, 677, -54, 158, -291, -256, -321, 7], [593, 222, -335, -88, 186, -68, -291, -473, 418, -383, -268, 285, 374, 1, -374, -165, 45, 515, 52, -335], [-148, -37, 611, 53, -72, 658, 104, -489, 89, -61, -147, -407, -177, 480, 198, -55, -474, 538, -129, 268], [285, -323, -111, -93, -69, 338, -82, -25, 235, -547, -114, -346, 413, -312, -11, -145, -165, -153, 99, 172], [-28, -359, 2, -246, 63, 654, 15, 74, 11, -341, -140, -116, 454, 115, -168, 11, 136, -177, 179, 83], [426, 21, 200, -134, -373, 751, -363, 379, -231, 104, -102, 2, -202, 202, -205, 325, 529, 383, -146, -300], [-357, -609, 216, -9, -42, -187, 5, -17, 195, -102, -212, 73, -81, 21, -265, -297, -233, 514, -229, 223], [394, -19, 60, 89, 54, -399, 185, 74, 97, 68, 22, 118, -626, -36, -400, -2, -75, -147, 4, -61], [-156, -417, -383, -6, -602, 583, 302, -102, -223, 23, 214, -66, 199, -232, -353, 104, 255, 376, -176, -189], [-208, -137, -455, -19, 25, -38, -73, -297, 355, -41, -309, -183, -361, 174, -10, -302, -144, 401, -96, -381], [392, 341, -20, -439, -209, -796, -146, 75, 53, -547, 96, -119, -865, -87, -317, 136, 240, -74, 146, 38], [184, 249, -523, -219, -378, -150, -190, -52, 688, -63, 45, 28, -522, 379, -202, -168, 386, 402, 50, -167], [-101, -226, -323, 160, 126, -182, -179, 297, -60, -21, -186, 243, 103, -187, -133, 233, 321, -663, -88, -181], [419, 70, 82, -309, 126, 278, 17, -272, -226, -398, 128, -158, -141, 299, -132, 54, 133, -128, -262, 748], [231, -287, -62, -40, -95, 534, 40, -10, 193, -236, 52, 84, 372, -246, -639, -120, -223, -249, 150, 281], [22, -271, -238, -256, 202, 270, -222, -414, 110, 186, -556, -235, -264, -232, -322, 160, 417, -347, 172, 154], [-95, -62, 96, 386, -151, -63, 341, -365, -137, 404, -301, 259, 356, 85, -91, 3, 45, 216, -237, 194], [16, -328, -110, -231, 33, 679, 78, -86, 59, -220, 63, 38, 379, 0, -246, 18, -26, -69, 41, -4], [295, -344, 35, 106, 319, 462, 123, -225, 121, -624, 222, 10, 277, 403, -313, 269, 45, -198, -114, -30], [428, -540, -110, 156, -11, 580, -1, 25, -130, -462, -115, 28, 482, -30, -342, -55, 29, -46, -80, 12], [537, -69, 59, -418, -131, 380, 71, -281, 241, -396, 94, -106, -408, -495, -444, 273, 12, -440, 77, 0], [641, -21, 395, -649, -368, 211, 120, -42, 494, -252, -147, 183, -331, -593, -358, -174, -122, 195, -95, -89], [220, 191, -405, -329, -348, -177, 192, 13, -241, -516, 39, 139, 80, -403, -58, 43, -30, 259, -129, 574], [318, 35, -370, 210, -124, -143, 396, 89, -50, 319, -224, -77, -551, -97, -427, 1, -286, 579, 49, -234], [-128, -195, 601, 149, -221, -202, -301, -257, 519, 189, -389, -273, -399, 75, 89, -444, 543, -96, 258, -121], [456, -207, -163, -376, 279, -171, -81, -178, 4, 53, 423, -257, -697, -317, -223, 50, -179, 122, -202, 243]], "layers.0.bias": [-350, 294, 95, -258, -164, -334, 215, -383, 92, -152, -151, 109, -708, -81, -221, -71, 176, -367, -381, -43, -11, -135, 73, -242, -138, 354, -180, -523, 363, -2, -365, -142, 68, -536, -289, 278, -103, -130, -8, -442, -371, -375, -5, 38, 86, 366, 44, -332, -58, -306, 308, 124, -69, -251, -59, -35, 266, 177, -43, -89, -383, -3, -60, 77], "layers.2.weight": [[405, -349, -380, -210, 83, -1, -43, 219, -532, -259, -94, -175, 634, 51, 183, -482, 405, -77, -146, -226, -264, -163, -98, -378, -440, -325, 465, -231, -155, -302, 351, 162, -208, 300, 231, -218, 374, 94, -481, 380, 366, 296, 134, 130, -633, -677, 259, 316, -306, -247, -32, 202, 379, 427, -727, 144, 230, 200, 295, 414, -111, -526, -111, -311], [-526, 45, 46, 18, -136, 315, 10, 309, -394, 136, 101, 52, -489, -16, -22, 1, -261, -449, -178, -29, -132, 235, -286, -144, 200, 133, 51, 360, -85, 252, -63, 93, 361, 74, 138, -51, -8, 115, 34, 109, 51, -461, -399, 276, -60, 120, -214, -215, -188, 362, 152, 291, -216, 72, 202, -299, -27, -137, -97, -194, 438, 189, -188, -235], [124, 164, -338, -446, 205, -170, 94, -136, 276, -165, -383, -307, 203, -461, 35, -303, 92, -141, -134, 120, -94, 102, 264, -539, 80, -84, 134, -410, -439, -20, 325, 122, -178, -397, -86, -34, 150, 391, 93, -485, 214, 133, 335, 95, 56, -430, 23, 343, -976, -66, 115, -134, 306, -710, -234, 156, 130, 27, 1, -35, -437, -20, 329, -81], [508, -111, -239, 290, -180, -398, -3, -595, 335, -756, 227, 17, 720, 360, 239, 54, 96, 439, -118, -502, -336, -477, -367, -155, -422, -107, 444, -907, -451, -474, -607, -171, 440, -132, -20, 80, -948, -198, -774, 240, -866, -130, -213, -415, 134, -492, -62, 26, -603, 330, -243, 12, 226, 190, 212, -214, -123, 617, 344, 312, -54, -957, -382, -716], [204, 92, 59, 97, 233, 182, -209, 264, -298, 50, 74, -132, -32, 168, 199, 222, -183, -42, -9, 230, -87, 275, 20, 76, -204, 104, -13, 313, -199, 200, 148, -211, 122, -106, -71, -119, -73, 113, 461, 185, -79, -278, -298, 49, -77, 119, -263, -36, -165, 370, 1, 259, -122, 45, -149, -236, 94, -298, -165, -174, 463, -31, 26, -143], [-254, 69, -214, -285, 21, -103, -47, -382, -3, -112, -282, -38, 224, 107, -166, -540, 63, -175, -296, -12, -21, -174, 241, -268, 305, -205, 268, -313, -732, 138, 421, 135, -314, -274, -49, 213, 144, -71, 298, -439, -24, 148, 125, -30, 66, -135, 27, 288, -505, 182, 219, -342, 196, -144, -53, 123, 425, 196, 103, -90, 13, 13, 485, -263], [305, -156, -466, -295, -17, -154, 16, -161, 17, -88, 124, -408, 390, -313, -163, -202, 452, -22, -55, -50, -98, 18, 146, -479, 51, 104, 156, -335, -888, 305, 665, 90, -126, -197, 54, -18, 184, 111, 54, 120, 167, -236, 22, 131, -8, -182, 374, 189, -847, 398, 98, -442, 243, -241, -47, -170, 167, 402, -107, -280, 74, 57, 26, -326], [16, 275, -778, -137, -11, 152, 27, -913, 110, -64, -170, -242, 598, -156, 39, -642, 107, -509, -437, 66, -171, -91, 381, -411, 73, -203, 140, -410, -703, 207, 398, -34, -363, -388, 22, 253, 139, 41, 212, -280, -19, 202, 200, 13, 246, -150, 65, 186, -397, -140, 121, -177, 508, -296, 79, 255, 311, 461, 296, -419, -194, -178, 413, -425], [208, 63, 70, 52, -86, 252, -47, -9, -245, 74, -89, -105, -268, 91, 81, 136, -181, -249, -150, 251, 70, 317, 48, 167, 117, 95, -130, 355, -100, 261, 2, -93, 240, 80, -260, -82, 280, 36, 345, 278, -34, -380, -322, 250, 23, 114, -164, 89, -424, 502, -22, 231, -190, 45, 24, -229, 98, -31, -96, -241, 417, 8, -220, -334], [-190, 107, 106, -23, -191, 180, -175, 377, -259, 36, 248, 2, 166, -234, -291, -23, -172, -594, -484, 253, -206, -104, -60, -91, 27, 71, -35, 480, -51, 296, 26, 351, 97, -192, -399, 190, 101, 144, 157, 347, 41, -547, -387, 196, -234, 184, -79, 271, -189, 631, 12, -173, 30, -34, 17, -172, 368, -11, -199, -300, 217, 68, -131, -219], [241, -6, -463, -172, 336, -585, 243, -460, -93, -203, -10, -339, 348, 14, 167, -394, -234, 261, -329, -261, 272, -83, -456, 312, -186, 62, 283, 67, -23, 207, -6, 27, -309, -817, 240, 293, -151, -200, -170, -23, 314, -171, 113, 197, -17, 172, 68, 55, 102, 152, 110, -327, -18, 57, 86, 92, 29, -347, 150, 318, 141, -223, 119, -638], [-1499, -207, -245, -1843, -1605, -1063, 170, -626, 9, -279, -274, 328, -1864, 416, -99, -145, 268, 360, -2137, -921, -863, -636, 281, 327, 308, 300, -282, -1175, 66, -502, 614, -402, -1224, 73, -109, 161, -61, -1528, -1114, -1407, -39, -1688, -616, -2091, -347, 125, -1275, -165, 460, -1384, 356, 111, -450, 195, -786, -1189, -259, -324, 280, 217, -1771, 294, -36, 374], [-27, 174, -166, -328, -7, -45, -2, -141, 50, -180, -228, -469, 320, -245, -134, -443, 296, -106, -338, 15, -99, -80, 327, -526, 236, -248, 275, -371, -968, 328, 427, -18, -220, -273, 37, 185, 147, 162, 129, -160, 93, 135, 50, -149, 145, -230, 237, 291, -781, -31, 134, -189, 454, -460, -24, 8, 324, 342, 76, -599, -2, -187, 295, -312], [-89, 131, -332, -499, 207, 192, 183, -652, 225, -89, -197, -232, 10, -207, 25, -392, 260, -290, -73, 68, 28, -108, 336, -29, 222, -153, 135, -297, -801, 292, 351, -32, -312, -432, 93, 93, 84, 119, 152, -312, -28, 58, 166, 177, 283, -308, 22, 311, -648, -179, 113, -436, 322, -364, -25, 337, 276, 506, -248, -855, -91, 72, 370, -267], [126, -28, -461, -132, 129, 334, 234, 88, -113, 118, 28, 280, 588, -132, -302, 87, 9, -321, -387, -70, -121, 80, 257, 177, -163, 260, 88, -298, -326, 117, 939, 203, -36, 70, -37, -199, 356, 117, 282, 315, 174, 56, -9, 179, -233, 329, 104, -43, 695, 383, 66, -158, -129, 133, 137, -329, 225, 31, -15, 366, -119, 8, 91, -140], [57, 216, -9, -237, -95, 129, 334, -1126, 16, -21, 59, -155, -144, -420, 139, -222, 270, -166, 52, 143, 43, -29, 167, -619, 95, -242, 81, -201, -522, -162, 233, -56, 209, -347, 0, 75, -369, 342, -109, -458, 101, 112, 187, -77, 5, -262, -10, -138, -503, 158, -132, -411, 112, -629, -155, -12, 62, 143, -64, -547, -580, 74, 158, -25], [158, -552, -294, -311, 21, 62, -379, 215, -706, -367, -36, -416, 680, -30, -5, 87, 251, -94, 419, -319, -689, -182, -212, -684, -676, -688, -336, -65, 33, -8, 107, 539, -321, 211, 356, -525, -263, 134, -135, 397, -83, 399, 160, -131, -526, -90, 217, 179, 92, -165, -49, 117, 210, 506, -386, 179, 264, 209, 174, 432, 352, -136, 250, -273], [-421, 111, 216, -41, -220, 157, 22, 157, -514, 27, -22, -25, -514, 388, 156, 81, 123, -121, -453, -28, -555, 368, 85, 445, 286, 73, 138, 170, 167, 168, -185, 16, -56, -446, -578, 183, 246, 388, -165, 81, 255, 35, -105, 454, 26, 96, 218, 435, -241, 367, -351, 196, 142, 270, -107, -91, 335, 220, 122, -297, -97, 3, -145, 71], [7, -458, -112, -339, 195, -65, -173, 177, -639, -315, -126, -120, 579, -133, 239, -622, 382, 357, 208, -656, -946, -263, -100, 34, -165, -209, 154, 37, 78, -131, 149, 53, -255, 662, 107, -232, 257, -172, -647, 410, 487, 324, 259, 349, -401, -554, 311, 398, -582, -294, -135, 83, 505, 541, -811, 406, 447, 290, 418, 324, 79, -613, -511, -220], [98, -249, 256, -380, -26, -757, -498, 324, -73, 502, -79, 74, 501, 63, -112, 12, 236, 205, 337, -824, 86, -129, -242, -660, -474, -333, 152, -127, 206, -54, 234, 220, -329, 605, 171, -405, -101, -312, -618, 238, -148, 285, 424, -304, -180, -22, 462, 101, 110, -551, -48, -3, 426, 394, 105, 271, 83, 380, 92, 392, -52, 69, -852, -116], [-110, -111, -26, -12, -89, 15, -82, 9, -99, 10, -48, -136, 1, -105, -168, -66, -190, -39, -120, 63, -97, -182, -67, -99, -180, 64, 3, -185, -149, 15, -15, -147, -106, 15, -84, 8, -76, -68, 17, 19, 28, -113, -56, -52, -94, -77, -88, 43, -126, 7, -140, -162, -60, 10, -50, -53, -106, -145, -93, 46, -185, -66, -92, -1], [-7, -25, -97, -45, -90, -174, -65, -133, -115, 12, -164, -87, -15, -50, 57, 28, 54, 43, 57, 41, 46, -183, 33, 5, -106, -159, -143, -11, -37, -40, -172, -95, -176, -17, -151, -18, -83, -91, 24, -181, -121, 26, 33, -156, -191, 26, 2, -64, 137, -63, -111, -187, -28, -39, -48, -44, -89, -134, 39, 1, 31, -16, -67, 43], [92, 76, 130, 333, -149, 150, -75, 304, -274, 57, 308, -120, 29, 245, 54, 128, 10, -221, -27, 264, 242, 419, 14, -39, 223, -91, 8, 427, 76, 269, 76, 126, 274, 98, -70, 189, 270, 211, 292, 367, -91, -435, -408, 179, -119, 8, -32, 0, -183, 250, 84, 371, 20, 145, 254, -293, 27, -67, 128, -104, 521, -70, -54, -67], [20, -66, -21, 387, 49, -90, -514, 438, 199, -87, -260, 4, 350, -97, -178, 70, -38, -628, 265, 226, 287, 169, -179, 229, 73, -10, 26, 614, -64, 4, -59, -382, 81, 414, 148, -406, 106, -258, 177, 72, 95, -503, -321, 263, 148, 75, -246, -23, 157, 196, -50, 166, -471, 289, 164, -394, -170, -842, 270, 56, 190, -189, 69, 0], [169, 28, 43, 251, 222, 411, -510, -88, 139, 188, -130, -142, -756, -597, -366, -627, -356, 539, 377, 344, 324, 374, -245, -179, 23, -479, -51, 537, -1337, -5, -206, -1, 67, 547, 311, -123, -342, -230, 183, 206, -203, 182, 138, 277, -163, 14, -366, -458, 274, -468, 119, -381, -367, -116, 256, -147, -456, -593, 31, -147, 173, 10, -387, -501], [105, -128, -228, -299, 217, 92, -185, -31, 155, -411, -213, -183, 778, -160, 40, -456, 351, 189, 42, -166, -52, 30, 263, -367, -119, -302, 226, -328, -553, 245, 493, 57, -294, 27, -66, -109, 126, 213, 89, 298, 169, 455, 315, 308, -4, -473, 330, 324, -892, -154, 302, 27, 406, 272, -216, 410, 282, 232, 202, -32, -104, -180, 275, -289], [-382, -442, -8, -128, -489, 75, 219, -489, -117, -34, -54, 132, 592, 276, -554, 176, -215, -861, 379, 271, -243, 73, 144, -268, 71, -255, -550, -225, -184, -215, -189, -554, 52, -98, -877, 119, 191, 330, -375, -143, 383, -29, -320, 117, 183, 254, 192, -527, 107, 125, 291, 142, 273, -160, 60, -302, 130, -198, -18, 434, 163, 54, -69, -216], [-55, -84, -122, -26, -139, -151, 24, -84, 15, -132, -29, -136, -184, -28, -47, 12, -64, 14, -86, -132, -134, -136, -32, 0, -12, -66, -60, -153, -78, -176, -138, -6, 25, 17, -180, 17, -146, -171, -173, -31, -39, -158, -58, -64, -63, 17, 13, -147, -11, -9, 61, -88, -25, -140, -126, 29, -181, -52, -190, 60, -7, -25, -69, 4], [202, -318, -191, 73, 111, -317, 323, -204, 241, -1093, 349, 44, 342, -716, -223, -204, -375, -127, -313, 332, 164, 55, 229, -204, -512, -171, 371, -290, -811, -251, 111, -1166, 9, -333, -69, -150, -540, -116, -337, -414, -798, -177, -94, 114, -278, 263, 10, -449, -34, 167, -170, -725, -94, 283, -102, 57, -27, 217, -738, 238, 158, 62, -67, -329], [-401, 21, 23, -7, -484, 56, 124, 246, -260, -247, 112, 1, -682, 263, -480, -37, -256, -126, -215, -130, -237, 319, -61, 64, 257, 214, -521, 520, 126, 149, 45, 201, 21, -344, -508, 319, 15, 244, 0, 106, -298, -245, -177, 189, 30, 173, 112, 135, -377, 273, -4, 364, 3, 177, 0, -186, 510, -73, 137, -407, 292, 198, -320, 178], [690, 90, -280, 124, 53, 513, 274, 332, -111, 364, 664, -34, 1051, 106, -232, -511, 323, -668, -207, 254, -140, 171, 184, -119, 43, -125, 552, -508, -395, 631, 812, 278, 537, 94, 172, 100, 405, 540, 439, 760, 247, -377, -59, 590, -261, -100, 128, 6, -342, 531, 247, 119, 166, 0, -141, -323, 441, 132, 166, 151, 486, 100, 148, -255], [25, 189, -308, -355, 165, 216, 177, -73, 51, -268, -350, -221, 547, -478, 133, -485, 252, 157, -275, 12, 10, -206, 432, -430, 144, -47, 114, -264, -622, 329, 232, -130, -277, -464, 97, 73, 285, 101, 254, -166, 332, 151, 76, 6, 151, -205, 52, 553, -878, -178, 280, -371, 449, -237, -216, 106, 158, 428, -248, -437, 53, -126, 238, -209]], "layers.2.bias": [-78, -66, -126, 87, 117, 50, 128, 165, 152, -82, 99, 113, 252, 170, 159, 289, -78, 168, -116, 115, -86, -136, 90, -61, -214, 111, 241, -96, 164, -2, 367, 96], "layers.4.weight": [[-392, 309, -437, -1013, 93, -117, -103, -374, 101, 445, -319, -850, -207, -386, 147, -497, -657, 230, -851, -579, -56, 83, 206, 396, 1087, -453, 916, -12, -528, 36, 209, -440], [353, -106, 36, 1031, 23, 350, 400, 420, 31, -151, 1070, 281, 372, 31, -22, 601, 347, -561, 365, 290, 106, 35, -204, -255, -948, 389, -740, -109, 786, -580, 213, 194], [-76, 62, -61, -65, -5, -115, -115, 80, -165, 20, -128, 87, 47, -113, -233, 96, 18, 91, 80, 25, -137, 14, 3, -54, 67, -155, -114, -177, -86, -215, -243, -46], [742, 6, -78, 1050, -143, 348, 231, 144, -160, -230, 917, 1268, 396, 187, 58, 550, 700, -613, 497, 153, -126, 141, -88, -206, -813, 448, -549, 17, 1006, -552, 277, 59], [348, 3, 82, 696, 119, -127, 130, 5, -57, -270, 768, 188, -38, 3, 17, 318, 366, -402, 175, 265, -136, -171, 9, -196, -590, 270, -457, -53, 759, -542, 87, 166], [261, 162, -124, 1102, 153, 110, 267, 109, 301, -115, 886, -123, 291, 288, 132, 649, 91, -741, 676, 496, -39, 137, -37, -96, -675, 47, -662, 12, 746, -711, -60, 32], [642, 137, -72, 909, 18, 128, 61, 77, 218, -218, 714, 1047, 267, 204, 383, 531, 837, 16, 307, 481, -125, 85, 135, -276, -999, 210, -754, -102, 829, -44, 109, 169], [387, 5, -35, 812, 274, 45, 197, 392, 85, -53, 824, 1217, 132, 212, 408, 439, 772, 52, 316, 622, 114, 50, 152, -497, -800, 99, -878, -44, 796, 31, 59, 222], [-309, 53, -308, -902, 166, -174, -34, -467, 126, 437, -353, -682, -163, -598, -24, -672, -700, 154, -867, -421, -51, -130, 124, 450, 1038, -383, 664, -117, -508, 123, 281, -679], [316, -61, -65, 696, 93, -19, 48, 173, 63, -293, 845, 857, 100, 303, 275, 485, 657, -29, 262, 395, 202, 179, 297, -229, -686, 234, -553, -91, 961, 167, -51, 153], [-153, -399, -907, -873, -665, -468, -630, -558, -1306, -506, -322, -44, -593, -717, -1386, -389, -663, 314, 581, -5, 106, 21, -1158, -699, -465, 502, -888, 54, -194, 454, -565, -268], [-611, 55, -545, -1027, 81, 291, -167, -483, 90, 267, -473, -768, -8, -332, 114, -427, -587, 191, -628, -379, 100, -17, 183, 484, 875, -442, 812, -194, -564, -34, 255, -483], [-500, 221, -362, -864, -26, 43, 75, -440, -5, 364, -370, -796, -214, -155, 91, -439, -758, 209, -753, -473, -18, -82, 250, 279, 1073, -417, 1036, 42, -751, 125, 236, -251], [-479, 141, -368, -1092, 90, 76, -29, -452, 32, 460, -325, -822, -203, -401, 139, -644, -622, 95, -915, -489, -4, 86, 201, 389, 973, -345, 946, 65, -629, 243, 337, -383], [-494, 293, -460, -1025, 128, -89, -196, -217, 42, 403, -338, -795, -147, -477, 88, -475, -655, 130, -841, -415, -82, 39, 69, 498, 922, -419, 557, -148, -551, 239, 332, -576], [741, -179, -89, 1034, 119, 368, 99, 196, -107, -249, 796, 1115, 206, 134, 239, 760, 734, -400, 598, 419, -95, -70, -32, -342, -878, 355, -789, -12, 748, -160, 42, 266]], "layers.4.bias": [353, 148, -226, 234, 123, 71, 78, 156, 372, -147, 53, 293, 129, 196, 367, 312], "layers.6.weight": [[587, -480, -142, -304, -235, -659, -190, -423, 632, -289, 1491, 801, 462, 610, 674, -611], [-492, 552, -111, 537, 236, 723, 333, 144, -602, 271, -1430, -385, -499, -569, -506, 236]], "layers.6.bias": [182, -332]}